{"h": 16, "w1": [[-0.3275179238098467, -0.37897008766114626, -0.37129670745392823, -0.5537362732704199], [0.32820986523894813, 0.22346352513576367, 0.3995531519282429, 0.5307500930756923], [-1.331281033381326, 0.3107320097686913, 0.9558180473625287, 0.39112462417407473], [-0.13258968200384696, -0.3207439953647311, -0.39783422316555084, -0.44981896899130674], [-0.8826416306619855, -0.2034289539955414, -0.01564036501073609, 0.014277020193413918], [0.34495652010447414, 0.07110717433579354, -0.15287988907568434, -0.5771277238819991], [0.035138118087381584, -0.5790805958973064, 0.3100217355010047, 0.21287694941056148], [-0.03409417991936207, -0.08345158379473307, 0.028724235254164555, 0.25050351752057376], [-0.5115787027372479, -0.08386946746463274, 1.008821382316931, 0.031212398100524175], [-0.01726196951799703, 0.399982556486232, -0.17646173817730446, 0.21540954271604879], [0.2255118367864466, 0.2044884623397617, 0.4690271654613437, 0.9246053166938835], [0.6538044695427457, 0.3455845920968059, 1.0532027599904912, -0.02982997889447313], [0.8280040306486965, -0.3707262884621296, -0.15327795725354387, 0.4845838911476114], [0.05930155895278103, -0.3823308144562348, -0.1427612996689462, -0.03901273393340017], [-0.563495544738815, -0.2168629464420593, -0.5286123373759001, -0.19520951517761181], [0.35339696193558406, -0.42340138906829905, 0.3398397869106143, -0.6656743935359305]], "b1": [0.05313869422121377, 0.07819054567582988, -0.11159068351068556, -0.04208713524636129, -0.10835820982044075, 0.04761846234289699, -0.03921119850310076, -0.016822927068479303, 0.3413247702457189, 0.16164754089588426, -0.08620142066330264, 0.07699457075265503, 0.10657706817091163, 0.0061607178632074235, -0.06629080437790662, 0.05266810228114036], "w2": [[-0.033961837156644546, 0.6302848501174751, -0.405943837832748, 0.7252139183202891, 0.6657343717166102, 0.05505847039668982, 0.23310955082859447, 0.2578142086674384, -0.6360827014372022, -0.1897969137966126, 0.4831618840524419, 0.6741853371098477, -0.06920205202434973, 0.23100973699532862, -0.22291033416805522, 0.10225059321130547], [0.3116441385079194, -0.16564716486174924, -0.224913316668441, -0.6153882665994213, 0.5924504273466614, -0.513857406886826, -0.3731034064781507, 0.07361657671661154, -0.09797921051186693, -0.5683071042327413, -0.36428497121023296, 0.2141496159408789, 0.4982303512152309, -0.36248381674717156, -0.3798377808237475, 0.07000328622735855]], "b2": [-0.0437869764954413, -0.026782109988107077]}